digraph Tree {
node [shape=box] ;
0 [label="X[4] <= -1.078\nentropy = 0.941\nsamples = 316\nvalue = [113, 203]"] ;
1 [label="entropy = 0.0\nsamples = 60\nvalue = [60, 0]"] ;
0 -> 1 [labeldistance=2.5, labelangle=45, headlabel="True"] ;
2 [label="X[26] <= 0.889\nentropy = 0.736\nsamples = 256\nvalue = [53, 203]"] ;
0 -> 2 [labeldistance=2.5, labelangle=-45, headlabel="False"] ;
3 [label="X[2] <= -1.036\nentropy = 0.394\nsamples = 206\nvalue = [16, 190]"] ;
2 -> 3 ;
4 [label="entropy = 0.0\nsamples = 4\nvalue = [4, 0]"] ;
3 -> 4 ;
5 [label="X[7] <= -1.954\nentropy = 0.325\nsamples = 202\nvalue = [12, 190]"] ;
3 -> 5 ;
6 [label="X[5] <= -1.442\nentropy = 0.811\nsamples = 4\nvalue = [3, 1]"] ;
5 -> 6 ;
7 [label="entropy = 0.0\nsamples = 1\nvalue = [0, 1]"] ;
6 -> 7 ;
8 [label="entropy = 0.0\nsamples = 3\nvalue = [3, 0]"] ;
6 -> 8 ;
9 [label="X[2] <= 0.181\nentropy = 0.267\nsamples = 198\nvalue = [9, 189]"] ;
5 -> 9 ;
10 [label="X[6] <= 0.735\nentropy = 0.612\nsamples = 53\nvalue = [8, 45]"] ;
9 -> 10 ;
11 [label="X[23] <= 0.56\nentropy = 0.469\nsamples = 50\nvalue = [5, 45]"] ;
10 -> 11 ;
12 [label="X[25] <= -0.358\nentropy = 0.159\nsamples = 43\nvalue = [1, 42]"] ;
11 -> 12 ;
13 [label="entropy = 0.0\nsamples = 1\nvalue = [1, 0]"] ;
12 -> 13 ;
14 [label="entropy = 0.0\nsamples = 42\nvalue = [0, 42]"] ;
12 -> 14 ;
15 [label="X[8] <= -0.306\nentropy = 0.985\nsamples = 7\nvalue = [4, 3]"] ;
11 -> 15 ;
16 [label="entropy = 0.0\nsamples = 3\nvalue = [3, 0]"] ;
15 -> 16 ;
17 [label="X[6] <= 0.436\nentropy = 0.811\nsamples = 4\nvalue = [1, 3]"] ;
15 -> 17 ;
18 [label="entropy = 0.0\nsamples = 3\nvalue = [0, 3]"] ;
17 -> 18 ;
19 [label="entropy = 0.0\nsamples = 1\nvalue = [1, 0]"] ;
17 -> 19 ;
20 [label="entropy = 0.0\nsamples = 3\nvalue = [3, 0]"] ;
10 -> 20 ;
21 [label="X[3] <= -0.434\nentropy = 0.059\nsamples = 145\nvalue = [1, 144]"] ;
9 -> 21 ;
22 [label="X[3] <= -0.453\nentropy = 0.469\nsamples = 10\nvalue = [1, 9]"] ;
21 -> 22 ;
23 [label="entropy = 0.0\nsamples = 9\nvalue = [0, 9]"] ;
22 -> 23 ;
24 [label="entropy = 0.0\nsamples = 1\nvalue = [1, 0]"] ;
22 -> 24 ;
25 [label="entropy = 0.0\nsamples = 135\nvalue = [0, 135]"] ;
21 -> 25 ;
26 [label="X[0] <= -1.261\nentropy = 0.827\nsamples = 50\nvalue = [37, 13]"] ;
2 -> 26 ;
27 [label="entropy = 0.0\nsamples = 19\nvalue = [19, 0]"] ;
26 -> 27 ;
28 [label="X[17] <= -1.456\nentropy = 0.981\nsamples = 31\nvalue = [18, 13]"] ;
26 -> 28 ;
29 [label="entropy = 0.0\nsamples = 9\nvalue = [9, 0]"] ;
28 -> 29 ;
30 [label="X[3] <= -1.794\nentropy = 0.976\nsamples = 22\nvalue = [9, 13]"] ;
28 -> 30 ;
31 [label="entropy = 0.0\nsamples = 5\nvalue = [5, 0]"] ;
30 -> 31 ;
32 [label="X[28] <= 0.547\nentropy = 0.787\nsamples = 17\nvalue = [4, 13]"] ;
30 -> 32 ;
33 [label="entropy = 0.0\nsamples = 3\nvalue = [3, 0]"] ;
32 -> 33 ;
34 [label="X[15] <= -0.753\nentropy = 0.371\nsamples = 14\nvalue = [1, 13]"] ;
32 -> 34 ;
35 [label="entropy = 0.0\nsamples = 1\nvalue = [1, 0]"] ;
34 -> 35 ;
36 [label="entropy = 0.0\nsamples = 13\nvalue = [0, 13]"] ;
34 -> 36 ;
}